-0.8499675693271932,-0.8941419372505788,-0.8972380086545182,-0.8408989889173042,11.554061334910719,-0.9182755083985057,-0.8403904286260991,-0.9370969268708927,-0.8221386241972264,2.6522167388231943,-0.9198611422717052,-0.869193579225302,-0.8772524785045436,-0.8656343543474598,-0.8822600312918573,-0.9052991909498707,-0.9801960165882848,-0.899689483302777,-0.9493538197403056,-0.8357138819432366,-0.978301789890146,-0.9040824322255343,-0.9166416228237273,-0.9022401115116844,-0.8425971391970719,-0.9174367398356622,-0.8890805563348293,1.5480395722941662,2.753980678235844,-0.8765052404382668,-0.8367736327528869,-0.9059799839434663,-0.8428335955174733,-0.8992504306565444,9.175861389907471,-1.0969681838134075
0.05106560808503417,0.009144434104394823,0.0320968941834733,-0.02884717396061874,2.362900948503101,-0.08861675963922735,-0.08672599108627539,0.01687972288797998,-0.009232392053061771,-4.973018732179317,-0.028228761791044495,-0.022959925095614203,0.001219793615601137,-0.06166266834349584,-0.08435327297337576,-0.04301287547879031,-0.007294071593849646,0.01820701440737686,-0.05513057992368683,0.0039588514437176505,-0.01603757832762015,-0.011270344952290581,-0.04043373882230286,-0.05038030355039312,0.024711926582332833,-0.08375165261036283,-0.08504149643363458,1.6130788133426337,-12.53918095942292,-0.012638667103826101,-0.06156964616565332,-0.02845353283092739,-0.053879741492473786,-0.05961534424689262,-0.28421298921456123,0.025899991106659796
0.14066145411922576,0.07578294988773313,0.15208272207606466,0.08788643819665758,-4.421044569679249,0.14310238853311166,-0.06769705499488268,0.20962635035816202,0.0021920201609044176,5.927971574311876,0.19019161939838494,0.025913121554933957,0.10877073310409754,0.13758636307689368,0.18114164751177314,0.439675645780632,0.10691479313906303,0.34309798085991117,0.008051783178877595,0.3499399677424232,0.3982287644417247,0.12705281665023194,0.1532989990966954,0.21953696101107822,0.23239052195989296,0.137329042960287,0.2616364017675821,-11.532001523212928,2.406935023768472,0.3341327608511367,0.09489598775143232,0.21138248013416763,-0.12730070557835746,0.31724865058057766,-4.678048809506076,0.14850297854740688
-0.34238860826550266,-0.34692932955594546,-0.4126334008454496,-0.3343969847068957,1.73825576938029,-0.3058255826771625,-0.4154524256687182,-0.3597802343294959,-0.4296605535419078,3.12893223788875,-0.36888386479418067,-0.3286604091428795,-0.39450325645493833,-0.4054316387537298,-0.32307539817816,-0.31379273993581774,-0.31128884077038343,-0.397183894458931,-0.3070118089555558,-0.3296839685720555,-0.37509436135001434,-0.32166016856581553,-0.4102998336943079,-0.3642997056586313,-0.3514197066747751,-0.33273622273878856,-0.3481006989494938,1.946495749746281,3.698377206572263,-0.349890820927866,-0.3255793869050116,-0.3602873883865547,-0.36267917173676467,-0.38655874734758516,-1.2828361341762151,-0.459398864643606
-0.929560904160056,-0.929735775863966,-0.8303587407082149,-0.8487441105814051,9.250839804778066,-0.8820960680406812,-0.852228931184994,-0.8438219030404305,-0.8290407907835762,8.197904794526174,-0.9024472807654047,-0.8604713936610107,-0.8791627162273693,-0.9018228657639417,-0.8653298582457295,-0.8313997147937155,-0.878702179631988,-0.8569103049874771,-0.9249965639215323,-0.8251547672275452,-0.9064268228651683,-0.8489567378269921,-0.8506323532363861,-0.8895662423984514,-0.9318842954981433,-0.8464481658033132,-0.8333103239634514,1.0628745026318098,1.3058722114498937,-0.8371893283863248,-0.8732190264184752,-0.8738589608218674,-0.9104785820987026,-0.892766916709892,5.25731348710246,-1.0591131468238122
-0.5568614489045863,-0.5584307887968277,-0.6172668029644961,-0.5420242241909538,4.500659419067986,-0.5033435665843593,-0.40896161194351843,-0.545781753217909,-0.5296355248371175,-1.0930804791138988,-0.5935697496668038,-0.5641760811115539,-0.5308015110437584,-0.5554788051144167,-0.7143864391846005,-0.8264126096086805,-0.4598526923067741,-0.6614795409258718,-0.44836599403176103,-0.7455986049184776,-0.738792872382755,-0.6215982825866541,-0.6440346239835874,-0.6441734676746633,-0.6188517785450384,-0.6505649639945488,-0.7393665374581397,4.554386518518446,11.95775775847988,-0.7987977647475302,-0.5471105429135408,-0.6006024652335932,-0.46128842463449043,-0.7868761119923063,-3.9566683900920574,-0.7032397277333235
-0.273180961262735,-0.3614390089963165,-0.35742127301146454,-0.2104981232591043,-4.103765009073408,-0.21406024491343217,-0.4662004555301693,-0.3281265729747116,-0.2529237834292708,-4.184152337259037,-0.4377848726559104,-0.37968809930877845,-0.331662281159987,-0.26303707811111365,-0.4545647656442942,-0.2619215755380457,-0.34943301334962157,-0.4731283462910425,-0.277101944117792,-0.40780459369009675,-0.3720910009248529,-0.44213457081714697,-0.3816458177428766,-0.2808370553484172,-0.3549069854374448,-0.3229596792784717,-0.3577000505495923,12.740541652912258,0.8826423297354571,-0.4932347092626302,-0.3254594991152924,-0.32137295362576346,-0.33882767947842113,-0.5090415089415324,3.77545843641641,-0.26904282362362036
