-2.7110591214371924,-0.2123325918196469,-0.12529298104082826,-0.9423645534753794,-1.0197962778874268,-0.25529301535919874,-0.6156612502033391,-0.6980274304738817,-0.13651206284151715,1.6507714262556026,-2.969741808277455,-0.07055587413427745,-1.8095059649333876,-0.08356152982148805,-0.8599330220195563,-0.09691018914665082,-0.0786851644141411,-0.14190437120208552,-0.291769392138401,-1.416192576175611,3.708972591487809,-1.4313788173613675,-4.24216763882477,-0.2077568303754808,0.35642524035262735,2.1642924001937867,2.8223212349397517,-0.5458668058845176,3.7353466426250854,0.06358632403694046,-0.7407857667002851,-0.15686097564812676,-0.18647127191793827,-0.9544772143640914,0.311233793857531,-0.30930651784453367
2.1773664968683097,-4.114131393121298,0.641803981765556,3.425450456050834,-0.8574077065068665,0.3723174908135007,0.4805171558189732,-3.9159554802112764,0.9416494015079752,-3.182877506176031,-0.3920449983491061,0.5744314652879061,-2.096154704669149,1.3400792026363282,-0.10771215509480582,0.31009479596299766,0.16084038331986172,0.43913221050368956,-1.323813798690571,0.8254608108938475,-1.804074575064265,-0.5454793693290795,0.08671846084624411,0.488221987038064,0.3866952359358045,-0.772142523841515,-0.6220457025870769,-0.07312632977517587,-2.235567104189026,0.3636435098699098,-0.31870251424787266,0.05441750551739064,0.22165768403040073,-1.619704938463759,0.2758240618492326,0.6148144516450619
2.5023387843596057,0.20398537625963406,-0.11674190908105483,-1.65761306799679,2.374704987345525,0.14141490612636948,-2.663188345864569,0.4976059251268395,-3.2617689974594932,-1.2527584464219468,-3.8846717264051183,0.035920203662092504,-2.891822438027157,-6.518838178179803,1.33343503153874,-0.10790432703957499,0.17050256040520723,0.01616857363534481,1.6100250995699203,-3.4003349810891437,2.5466240369795865,2.8772628545824808,2.391683089638752,-0.03706150231521027,0.3792151720476822,0.8565242735123764,2.82297155970141,2.337863422692292,-0.9394851565960008,-0.49416545153103797,2.010850745832732,1.0893015088227465,-0.32247131684833474,-0.034327729297834786,0.011241758542373217,-0.192738633468655
2.65824951310567,-0.31765379741734906,-0.6556338142971255,3.0241502737505184,1.1694571059130476,-0.9497845474176471,0.27592444552526096,-0.2875139271830916,0.31238219649925475,0.7386652320042398,1.987127746577919,-0.8618449214054055,0.7828056706639539,0.45697584225942073,-0.48129785806349806,-0.9059505177334334,-0.7949905603009759,-0.9521084473241134,0.5575966163609659,-1.5603114817678823,1.1627663048326737,5.653334587527402,0.09992996266060271,-0.8907429583706605,-0.6701643811466718,0.684408687401735,-2.4540342023318704,0.7507426428115912,1.732081952450206,-0.9043039753816963,-4.277856276308131,-3.028310312794474,-0.8123565115579677,1.1287911474406689,-0.82628050271331,-0.9473551968465062
-0.4664870656674691,-0.03340916761903467,-0.617790531171017,2.503926825567351,-2.01974884781364,-0.7406438053835948,0.8830930847377937,-0.26610183582486036,0.5285035060990823,0.565287971713577,-1.4373734301249323,-0.6305187905375701,1.0523638749811473,0.031787004709631715,-0.8914463854485346,-0.6838871678488584,-0.6953951542324243,-0.7210216524234118,-2.446579784367034,0.7640622666493082,2.7645234538497516,-1.1187233244466204,2.4068526906515912,-0.7800327118893489,-0.4650719344990458,-0.1529227498449275,-2.911696061152046,3.1774126236733444,1.7672827328783436,-0.7372432885966553,1.609281664932486,-2.4187503957729177,-0.7456693482525739,0.2816045849825629,-0.446312492127281,-0.9166425843285563
-1.3825114160020262,4.146248821146933,-0.7888353235440795,1.03442716138998,-1.4607021890729313,-0.7869723594963568,0.2214236458218565,4.24200416745724,0.3192285257443532,-1.8474348247254149,-0.5998651314644556,-1.0468183243782838,2.8763029663900177,2.180186492615854,0.8960761531187882,-0.9395609603759725,-0.763879531472858,-0.7142358307058998,1.9259471397702461,1.3661871763814337,2.886270666262565,-4.988452732857621,-1.8485864752204453,-0.8895761236727008,-1.167022099502677,-2.3253442633670898,-2.4066941568082996,3.1525928685988007,-3.669189958644556,-0.5384803654639652,-2.7194005413282745,-0.5631136229475674,-0.7651372620705368,-2.718540920593508,-1.228598553226974,-0.9501835596155345
-0.1629177575937267,1.4510375442038932,-0.5466715691464322,-2.2141205514686053,2.902133676846049,-0.18144498561402375,0.47952524702746596,-0.30134562390386965,1.3656651449362125,4.091126282722546,0.1472061556867969,-0.31115393753252396,1.2687872810545517,6.191686919695297,-2.0912139454250798,-0.23022808765632236,-0.2021509540766229,-0.2920448022807194,-1.9649573700528495,-3.7203033119280073,-4.211505362956095,-2.867264998031136,0.5852908492269855,-0.22912794021107588,-0.4796840240314427,-2.8588792438107062,-0.03759910484620562,-4.404017532957045,-1.8015539073219504,-0.37033236660826685,2.5104235215403365,-0.7959645788755618,-0.07224727823855695,-1.8037596095940767,-0.11082336054600914,-0.4350288197941178
