-3.0978536931563414,4.249929909962623,-2.3554159763870293,-4.708705575477964,-3.9239768054544792,-2.886963810617037,0.2516832385983561,-0.27304120673472204,-4.05873136702801,-2.3547207675713975,-4.3691890233392465,-2.2903100642557974,-9.922186091165559,-2.768017277297942,7.451681858103073,-2.335701398488515,-2.3252091145990117,-1.0954631088341202,3.276463623204672,1.715882739452407,7.952597099715238,-2.8023370777222048,-15.235175446201552,-2.449091211073022,5.342976138228856,16.608809695382202,9.158851614426192,1.1958306422107483,19.372330203786092,-0.051364215823885395,0.6390132302713784,-17.103617067963956,-2.403606899208148,8.034155475031719,-0.953404029569409,-2.567981847119932
9.345943900388924,-19.072094833993187,0.2224396007086715,10.327812274088597,-4.8584254838583485,-0.08281093143760289,3.4721724776525797,-12.542054352759344,6.6864203346054465,-5.277511022338827,5.346482550646884,0.19542444792198338,-7.540342322730989,1.0566658502694013,-5.332477530423641,-0.0918139682062795,-0.2704461827388385,-0.592475145600488,0.8009539848728738,1.7718800792759424,-2.918262845949889,-0.8351099215120755,-4.29985940501512,0.0848480502295321,4.751928183897648,-0.8199707577548243,-1.21498929925776,4.1053824724446555,1.081753975799428,2.103853541926807,-2.179189476252833,-0.40551160433666394,-0.22257908414517702,-1.2874628940625268,4.210886523074851,0.23632535975709834
2.866283123954552,0.2012001964632207,-1.240720237192658,-1.8267551573964977,6.830398592486682,-0.5667046167171427,-16.689900130948754,3.0461174749581157,-6.774377171276663,-2.2465728508360763,-8.776411938501198,-1.0832357837683013,-5.511738754015464,-14.067429939111467,6.726325536663188,-1.2390453029297575,-0.9488611590007714,-0.8322616432254276,2.604082228436525,-1.4486965857491119,2.756826379637534,13.044178708001938,12.573187259365442,-1.1523061572991513,0.258986954411052,1.4852748995426883,5.663013095937901,2.6930569337237578,-1.987972731130838,-6.312686817669389,5.763821769445473,8.368055527178443,-1.4316220789696823,-4.231374982483769,1.5276225284648561,-1.3336114077137424
4.399343566415417,-0.8659745552898248,-1.2140268517750525,4.074977353702866,0.6595974586524396,-1.49422380093796,1.2214965929344432,1.1181300636050766,4.217372032956896,0.1957848896601296,2.485334856409617,-1.4316723222412513,1.3976017921214323,0.08646494772881279,-1.180748542145113,-1.4691301121225038,-1.3580942429918998,-2.122335981278953,-0.1646271153450156,2.853646843128756,-2.199552798658293,13.11576721430884,-4.073791023691824,-1.4601729274740487,-3.6437378876854933,0.3201968682426043,-6.0147437477215355,0.26387003831749084,8.1088722488831,1.2339318256165381,-7.980604263621317,-6.987267486703647,-1.3856179339173191,1.724556016967343,-2.8933595191537314,-1.4989408117517062
-8.190325505644578,-1.7182675014581268,-2.4317028573817394,4.523023449542501,0.9272146281141606,-3.2164320823488137,2.1800900293045027,5.987095948620813,5.73517940847749,-1.2723733687342884,-4.997166909816625,-2.4523876545270786,1.7421887405272547,-1.7938344875964112,-5.046431451611708,-2.5053094077845155,-2.5140993418383877,-2.9165210463265483,2.320909997753258,1.2570749019150145,8.710987997588413,-5.062621149665161,10.743066745287349,-2.602641324138833,-2.437922708857366,3.182608825633624,-6.342499174585602,8.015039926401244,-0.14786122390866188,-6.563531800420242,4.687561779421925,-8.20159370239042,-2.58856106900975,-4.526981732036134,2.2768908228413234,-2.7524165498893405
-18.931083270182217,14.297057106056695,-1.1506946219516239,7.26929932824169,-8.375287140628279,0.7840071234824798,5.769501313231972,15.552806676763709,-10.416339341098082,-16.15151502395094,-11.908733199303173,-1.4171213854900373,7.772755798619095,-0.2327683138828017,11.817239830535053,-1.2914374574301102,-1.1103711822052644,-2.073260726300856,14.711330718299987,15.920068214538698,16.314354248483486,-19.107103771616742,-8.190611325860912,-1.2569774573855577,-10.248778312382422,-18.577832688682424,-17.83589843511537,14.550944737238064,-4.869311607864749,-10.371731909633459,-18.439414546810358,8.898055282713178,-1.1506001160916952,-12.586408029037417,-9.320674785867471,-1.285703704193042
18.68670299893516,20.058700655759516,-4.201087685580481,-10.821823012784725,11.616692643517577,-5.675712452964739,-7.914442883230771,-16.364455502525555,13.93122591771369,17.526597695992724,16.574020151248735,-3.9596490917184837,8.50172795316805,25.189183647705665,-16.203314390866655,-3.858801209689969,-3.8274221505575574,-6.102018355526501,-18.107458525258988,-23.06540600034589,-16.336078842377304,-24.46375210215372,6.168329543477375,-3.8580218048915382,9.108970112547421,-18.457654454296268,10.256661888512022,-19.15952176678506,-7.667475550357869,2.527595734577807,13.891504068011187,6.025713432194515,-3.7240972023154493,3.271475507920688,-4.355863647428433,-4.041924056095991
