-5.09792484898397,1.4434686660549898,2.208536649526571,4.231163103485359,0.9395967000970997,-3.0823656472505503,-0.8080797223394645,5.664139420068455,2.0257802408027903,-2.876534193695215,-2.692786192450752,-3.5949972441004245,1.4943013494860489,0.46972077103265764,-1.6921130021780078,1.2284667454183245,0.9773781566044905,-3.7892890555920458,-1.5244039314058795,-1.392952346188459,0.1561536107198806,-0.5689181035473535,-0.4647871881941727,-2.6900675855786385,2.5471496161476987,-1.3767959614468477,0.4099053301272404,0.3029735178716538,2.6803202260969097,-1.8472175754522944,-1.3326748128975765,-0.4931489590045348,0.2029385274778205,-1.7067822956983292,-1.7829567712295684,-1.4573541948205941
0.362645179783128,-0.17747446354644472,-2.6828882378527448,0.19476380246402955,-7.0914369264909025,1.1654098201385439,-2.534007547595636,-1.372275392971936,0.9380798152424885,-0.6913193247881105,0.5352846204448783,2.68560907742841,-1.7108540091033408,-3.6066650725097245,0.7848833324183769,0.800617310457481,1.0145891524613653,-0.14604168961828481,-1.8093831896848067,1.3978768482399002,-0.8831922748467057,0.2991654555983024,-0.5476797209496438,3.0136696164462666,2.8699486665677063,-2.09225041898002,-2.8775511818231716,-3.390989072210968,-1.934353006408863,1.436067174026771,0.6472379620964596,0.6980577761574589,0.5460531762333608,1.376525864442803,-0.6093749648171699,1.3958345277510618
0.9131124133088716,-1.6769920871312871,-0.5869740063105274,2.0452267223129654,-0.6740990347922357,-0.3219739877650224,-3.866642476830739,2.5265131513723413,-2.9863251686843113,3.0930394180231033,2.143309734972348,2.6220259906373538,1.88819399695669,-1.65682895522575,-1.7254260496761054,-1.5622869687010477,0.11609466366309133,2.830539063008154,0.24364069937183463,-5.2853865807580105,2.0411417680124,-0.4397476119253609,0.7002052162904664,-2.869318052476661,0.1471949684083772,-1.19739400458631,-1.3194858569547974,0.27129640664521026,3.153479963062163,-0.21356904802155524,-4.577846528642207,7.474207775979638,3.08160699408328,-4.286863017820528,-0.054008672180692434,-0.3049355065802138
0.8237814020934746,-1.9757999180055146,0.36234826347807897,1.1337664324507961,0.3307520376900445,0.13767845545454607,-4.358226517731038,-2.2005973438044193,-2.5264052739795186,-1.4627307950645942,-1.886365325729772,1.8730112269619523,0.4946204324821911,-3.6780787746037653,0.31814977126021604,-1.3693218533112301,-0.4846130419389288,-2.3370033423903793,-0.048199166346447817,-1.8072778688926685,-1.7030969590711194,-1.8783836282128683,1.2372997384781073,0.2644106424351763,2.1302377042138647,-0.5546472271980364,0.7050082588111763,0.2238314064547566,1.0548700231471326,4.484720932574508,0.6167384339767291,-1.2562896987970371,-5.167518567481507,0.5220730779106743,-0.5082972283722218,-0.43314609345553884
0.2004899302245636,-4.195577988765335,-1.2206013857621631,-1.1967421147686956,-0.037320663097193806,-2.3214530228078507,4.138969687302673,-0.8631618783733029,-1.1983666460846765,-1.9286624202121914,-1.514010101535332,1.4028747378258528,-2.6210232003050873,-0.2658954871971744,1.0762221119324715,1.4660932425403927,3.486639323230529,-1.7901833800692888,-1.0655634567677734,-2.4796865403771733,0.0901367572897124,0.7932398153685416,-1.5580139367280676,1.664080486010933,1.7492473405533835,-3.0436107824854517,0.11515697384435689,-0.31108230817871574,2.0231831868075565,0.4258511868874137,-0.34630576813993996,-0.7031326475906191,-3.051475700625751,-0.6662791155240311,0.5237065253495561,-1.179625180116645
-2.0564296860405116,0.927537518111194,-4.258636170072692,-5.793976376550259,8.5244719920153,0.018141371273640145,-6.570332277984542,1.5752489442112667,2.5837996844501867,-0.2646771529106736,-5.448075753893932,2.2608650667511085,-5.23620489111989,0.9968803815895158,-2.5628042148549146,3.8738020691173807,-2.2923867198885786,-2.730307704197351,5.711667354783626,-2.8164991670908694,3.053702442391665,-0.5804907536379957,-6.833650208178632,-3.9578900625475124,0.1961206721614748,-2.8250917869608942,5.572660558252158,-0.44265693869209977,2.855445912877116,-1.8177300890331705,-0.10787889230282877,-2.073084872808593,-0.004003687054325145,-1.6554264686856641,-0.5333154793683818,-2.3427567618681246
2.141555366919702,1.4936599192483113,2.416398293522266,1.2879693491102313,1.8989349639504451,0.7935993726578157,5.183248779513192,-5.004944441634067,-5.285787724478545,-3.8927377795534026,2.747724428664208,-3.0321772796960347,2.5784511717733434,1.5082789492701412,-0.9946077326907823,-5.573935613712413,-3.030115995477876,-0.8313330624061761,-4.077339427754173,5.905041349085255,-4.775764206369611,-1.2298593584322803,3.4573946293675957,-1.235442956682189,-5.815938147546248,2.1812529056186505,-5.4752153974613655,5.174936480798272,-6.919742988584235,-5.310848403616523,3.9240354461304747,-5.955884834046693,4.523272236582059,6.631641957593015,-3.13352739601367,0.544118069095727
